<?xml version="1.0"?>
<opencv_storage>
<stage19>
  <maxWeakCount>16</maxWeakCount>
  <stageThreshold>-9.1757214069366455e-01</stageThreshold>
  <weakClassifiers>
    <_>
      <internalNodes>
        0 -1 90509 2.0960703492164612e-01</internalNodes>
      <leafValues>
        -3.4117648005485535e-01 3.5510203242301941e-01</leafValues></_>
    <_>
      <internalNodes>
        0 -1 36248 1.1572190560400486e-03</internalNodes>
      <leafValues>
        -1.8348440527915955e-01 5.7075005769729614e-01</leafValues></_>
    <_>
      <internalNodes>
        0 -1 148183 4.0350845665670931e-04</internalNodes>
      <leafValues>
        -2.3785370588302612e-01 4.1256561875343323e-01</leafValues></_>
    <_>
      <internalNodes>
        0 -1 56793 3.7343807518482208e-02</internalNodes>
      <leafValues>
        -1.7150257527828217e-01 6.8217313289642334e-01</leafValues></_>
    <_>
      <internalNodes>
        0 -1 54279 1.5580273233354092e-02</internalNodes>
      <leafValues>
        -7.6258659362792969e-02 8.8120794296264648e-01</leafValues></_>
    <_>
      <internalNodes>
        0 -1 79720 -5.0182089209556580e-02</internalNodes>
      <leafValues>
        6.9820243120193481e-01 -1.1945366114377975e-01</leafValues></_>
    <_>
      <internalNodes>
        0 -1 7437 -1.9119624048471451e-03</internalNodes>
      <leafValues>
        -7.5120222568511963e-01 1.3081268966197968e-01</leafValues></_>
    <_>
      <internalNodes>
        0 -1 139166 -4.9003460444509983e-03</internalNodes>
      <leafValues>
        5.7617890834808350e-01 -1.5237821638584137e-01</leafValues></_>
    <_>
      <internalNodes>
        0 -1 87809 -1.2913370132446289e-01</internalNodes>
      <leafValues>
        4.9713659286499023e-01 -2.1943823993206024e-01</leafValues></_>
    <_>
      <internalNodes>
        0 -1 16298 1.3402719050645828e-03</internalNodes>
      <leafValues>
        -1.3357496261596680e-01 6.9807988405227661e-01</leafValues></_>
    <_>
      <internalNodes>
        0 -1 98664 -1.4742536004632711e-03</internalNodes>
      <leafValues>
        -8.9511311054229736e-01 1.2116914987564087e-01</leafValues></_>
    <_>
      <internalNodes>
        0 -1 151973 9.1944925952702761e-04</internalNodes>
      <leafValues>
        -2.2997669875621796e-01 3.8118988275527954e-01</leafValues></_>
    <_>
      <internalNodes>
        0 -1 41490 -1.8136849394068122e-04</internalNodes>
      <leafValues>
        3.9922365546226501e-01 -2.2516101598739624e-01</leafValues></_>
    <_>
      <internalNodes>
        0 -1 115624 -9.6557149663567543e-03</internalNodes>
      <leafValues>
        -7.7094751596450806e-01 1.1343940347433090e-01</leafValues></_>
    <_>
      <internalNodes>
        0 -1 103221 -5.0027193501591682e-03</internalNodes>
      <leafValues>
        3.6375281214714050e-01 -2.4475763738155365e-01</leafValues></_>
    <_>
      <internalNodes>
        0 -1 104400 -3.9572725072503090e-03</internalNodes>
      <leafValues>
        6.1132448911666870e-01 -1.5353186428546906e-01</leafValues></_></weakClassifiers></stage19>
</opencv_storage>
