<?xml version="1.0"?>
<opencv_storage>
<stage13>
  <maxWeakCount>14</maxWeakCount>
  <stageThreshold>-1.0408695936203003e+00</stageThreshold>
  <weakClassifiers>
    <_>
      <internalNodes>
        0 -1 81302 2.6826521754264832e-01</internalNodes>
      <leafValues>
        -2.3324397206306458e-01 6.8503934144973755e-01</leafValues></_>
    <_>
      <internalNodes>
        0 -1 15452 4.8126699402928352e-03</internalNodes>
      <leafValues>
        -2.4405094981193542e-01 6.9432485103607178e-01</leafValues></_>
    <_>
      <internalNodes>
        0 -1 72799 -4.4671665877103806e-02</internalNodes>
      <leafValues>
        -6.3711804151535034e-01 2.1655201911926270e-01</leafValues></_>
    <_>
      <internalNodes>
        0 -1 24571 3.4807905554771423e-02</internalNodes>
      <leafValues>
        -2.1390824019908905e-01 5.7041656970977783e-01</leafValues></_>
    <_>
      <internalNodes>
        0 -1 153924 -4.0270504541695118e-05</internalNodes>
      <leafValues>
        3.8057467341423035e-01 -2.9758870601654053e-01</leafValues></_>
    <_>
      <internalNodes>
        0 -1 113567 -6.8611912429332733e-03</internalNodes>
      <leafValues>
        7.4031394720077515e-01 -1.2316249310970306e-01</leafValues></_>
    <_>
      <internalNodes>
        0 -1 102171 5.9058971237391233e-04</internalNodes>
      <leafValues>
        -2.8356254100799561e-01 3.3681648969650269e-01</leafValues></_>
    <_>
      <internalNodes>
        0 -1 94104 1.8926712870597839e-01</internalNodes>
      <leafValues>
        -2.8446149826049805e-01 3.3554565906524658e-01</leafValues></_>
    <_>
      <internalNodes>
        0 -1 56263 -5.4339929483830929e-03</internalNodes>
      <leafValues>
        6.3438451290130615e-01 -1.9394519925117493e-01</leafValues></_>
    <_>
      <internalNodes>
        0 -1 21676 -3.0361909419298172e-02</internalNodes>
      <leafValues>
        5.6614726781845093e-01 -1.7313885688781738e-01</leafValues></_>
    <_>
      <internalNodes>
        0 -1 8818 -1.3599004596471786e-03</internalNodes>
      <leafValues>
        -8.6821681261062622e-01 1.1654055863618851e-01</leafValues></_>
    <_>
      <internalNodes>
        0 -1 80387 -1.5380481258034706e-02</internalNodes>
      <leafValues>
        6.1967056989669800e-01 -1.9068326056003571e-01</leafValues></_>
    <_>
      <internalNodes>
        0 -1 144500 -5.8681494556367397e-03</internalNodes>
      <leafValues>
        -6.1300468444824219e-01 1.7776267230510712e-01</leafValues></_>
    <_>
      <internalNodes>
        0 -1 186 -1.7980244010686874e-02</internalNodes>
      <leafValues>
        -7.9102015495300293e-01 1.1130344867706299e-01</leafValues></_></weakClassifiers></stage13>
</opencv_storage>
