<?xml version="1.0"?>
<opencv_storage>
<stage11>
  <maxWeakCount>13</maxWeakCount>
  <stageThreshold>-9.0061795711517334e-01</stageThreshold>
  <weakClassifiers>
    <_>
      <internalNodes>
        0 -1 7697 5.7385541498661041e-02</internalNodes>
      <leafValues>
        -2.2177955508232117e-01 6.7611336708068848e-01</leafValues></_>
    <_>
      <internalNodes>
        0 -1 34606 9.0092651546001434e-02</internalNodes>
      <leafValues>
        -1.8443727493286133e-01 8.2499247789382935e-01</leafValues></_>
    <_>
      <internalNodes>
        0 -1 28656 7.5120117980986834e-04</internalNodes>
      <leafValues>
        -1.4822310209274292e-01 6.2989717721939087e-01</leafValues></_>
    <_>
      <internalNodes>
        0 -1 15605 -5.5847838521003723e-03</internalNodes>
      <leafValues>
        -5.4849547147750854e-01 2.1106465160846710e-01</leafValues></_>
    <_>
      <internalNodes>
        0 -1 45561 -6.5387389622628689e-03</internalNodes>
      <leafValues>
        7.4429023265838623e-01 -1.7753516137599945e-01</leafValues></_>
    <_>
      <internalNodes>
        0 -1 1142 2.9666642658412457e-03</internalNodes>
      <leafValues>
        1.8300396203994751e-01 -6.8158948421478271e-01</leafValues></_>
    <_>
      <internalNodes>
        0 -1 10036 -1.8803358543664217e-03</internalNodes>
      <leafValues>
        -8.2261759042739868e-01 1.3588818907737732e-01</leafValues></_>
    <_>
      <internalNodes>
        0 -1 158941 -4.0009049698710442e-03</internalNodes>
      <leafValues>
        4.9835893511772156e-01 -2.4052241444587708e-01</leafValues></_>
    <_>
      <internalNodes>
        0 -1 138311 -6.0453601181507111e-03</internalNodes>
      <leafValues>
        6.3908976316452026e-01 -1.9873441755771637e-01</leafValues></_>
    <_>
      <internalNodes>
        0 -1 101708 2.8766354545950890e-02</internalNodes>
      <leafValues>
        -1.5533368289470673e-01 6.3693702220916748e-01</leafValues></_>
    <_>
      <internalNodes>
        0 -1 113592 1.4391429722309113e-02</internalNodes>
      <leafValues>
        -1.2175402790307999e-01 8.7567681074142456e-01</leafValues></_>
    <_>
      <internalNodes>
        0 -1 133363 -2.3368880152702332e-02</internalNodes>
      <leafValues>
        4.6681442856788635e-01 -2.2457760572433472e-01</leafValues></_>
    <_>
      <internalNodes>
        0 -1 116993 -4.6751061745453626e-05</internalNodes>
      <leafValues>
        3.2361409068107605e-01 -3.5967788100242615e-01</leafValues></_></weakClassifiers></stage11>
</opencv_storage>
