<?xml version="1.0"?>
<opencv_storage>
<stage18>
  <maxWeakCount>15</maxWeakCount>
  <stageThreshold>-7.5447952747344971e-01</stageThreshold>
  <weakClassifiers>
    <_>
      <internalNodes>
        0 -1 69258 4.5958519913256168e-03</internalNodes>
      <leafValues>
        -1.6646115481853485e-01 7.1428573131561279e-01</leafValues></_>
    <_>
      <internalNodes>
        0 -1 49846 4.6600755304098129e-03</internalNodes>
      <leafValues>
        2.2499862313270569e-01 -4.5654699206352234e-01</leafValues></_>
    <_>
      <internalNodes>
        0 -1 60703 -1.9442647695541382e-02</internalNodes>
      <leafValues>
        -8.2643544673919678e-01 9.7424365580081940e-02</leafValues></_>
    <_>
      <internalNodes>
        0 -1 5851 2.6090121828019619e-03</internalNodes>
      <leafValues>
        8.3343848586082458e-02 -8.6667388677597046e-01</leafValues></_>
    <_>
      <internalNodes>
        0 -1 43702 8.2556298002600670e-04</internalNodes>
      <leafValues>
        -1.7254503071308136e-01 5.8832228183746338e-01</leafValues></_>
    <_>
      <internalNodes>
        0 -1 45743 8.3947189152240753e-02</internalNodes>
      <leafValues>
        -1.5888315439224243e-01 6.6868227720260620e-01</leafValues></_>
    <_>
      <internalNodes>
        0 -1 58518 4.0898956358432770e-03</internalNodes>
      <leafValues>
        -1.3475291430950165e-01 7.3783111572265625e-01</leafValues></_>
    <_>
      <internalNodes>
        0 -1 18478 1.0661164671182632e-01</internalNodes>
      <leafValues>
        1.2400369346141815e-01 -8.4187066555023193e-01</leafValues></_>
    <_>
      <internalNodes>
        0 -1 21562 -3.8937214412726462e-05</internalNodes>
      <leafValues>
        3.5057911276817322e-01 -2.2990632057189941e-01</leafValues></_>
    <_>
      <internalNodes>
        0 -1 20054 2.7189176529645920e-02</internalNodes>
      <leafValues>
        -3.2324802875518799e-01 2.7165171504020691e-01</leafValues></_>
    <_>
      <internalNodes>
        0 -1 77855 -2.6698037981987000e-03</internalNodes>
      <leafValues>
        4.6501770615577698e-01 -2.0177900791168213e-01</leafValues></_>
    <_>
      <internalNodes>
        0 -1 112635 -7.5244233012199402e-02</internalNodes>
      <leafValues>
        4.2818379402160645e-01 -2.8402277827262878e-01</leafValues></_>
    <_>
      <internalNodes>
        0 -1 155336 4.3584615923464298e-04</internalNodes>
      <leafValues>
        -3.2389894127845764e-01 2.9008173942565918e-01</leafValues></_>
    <_>
      <internalNodes>
        0 -1 161692 3.6468227335717529e-05</internalNodes>
      <leafValues>
        -2.5806418061256409e-01 3.6122369766235352e-01</leafValues></_>
    <_>
      <internalNodes>
        0 -1 157108 3.4572049044072628e-03</internalNodes>
      <leafValues>
        -1.7731124162673950e-01 5.3365272283554077e-01</leafValues></_></weakClassifiers></stage18>
</opencv_storage>
