<?xml version="1.0"?>
<opencv_storage>
<stage9>
  <maxWeakCount>7</maxWeakCount>
  <stageThreshold>-7.1303999423980713e-01</stageThreshold>
  <weakClassifiers>
    <_>
      <internalNodes>
        0 -1 20570 -4.2724430561065674e-02</internalNodes>
      <leafValues>
        5.0364965200424194e-01 -8.0821919441223145e-01</leafValues></_>
    <_>
      <internalNodes>
        0 -1 73612 2.2851841524243355e-02</internalNodes>
      <leafValues>
        -6.2042039632797241e-01 4.7213095426559448e-01</leafValues></_>
    <_>
      <internalNodes>
        0 -1 21952 -3.0726394616067410e-03</internalNodes>
      <leafValues>
        7.8213095664978027e-01 -4.1727823019027710e-01</leafValues></_>
    <_>
      <internalNodes>
        0 -1 77538 6.1463803285732865e-04</internalNodes>
      <leafValues>
        -3.2596418261528015e-01 8.2470452785491943e-01</leafValues></_>
    <_>
      <internalNodes>
        0 -1 44434 -4.9820121377706528e-02</internalNodes>
      <leafValues>
        4.3022620677947998e-01 -6.8102526664733887e-01</leafValues></_>
    <_>
      <internalNodes>
        0 -1 78419 -8.7595954537391663e-03</internalNodes>
      <leafValues>
        -9.3050092458724976e-01 3.2015714049339294e-01</leafValues></_>
    <_>
      <internalNodes>
        0 -1 49900 -6.5954597666859627e-03</internalNodes>
      <leafValues>
        6.4889466762542725e-01 -4.9095049500465393e-01</leafValues></_></weakClassifiers></stage9>
</opencv_storage>
