<?xml version="1.0"?>
<opencv_storage>
<stage5>
  <maxWeakCount>6</maxWeakCount>
  <stageThreshold>-4.3058988451957703e-01</stageThreshold>
  <weakClassifiers>
    <_>
      <internalNodes>
        0 -1 49105 -6.7933663725852966e-02</internalNodes>
      <leafValues>
        5.2307695150375366e-01 -7.2500002384185791e-01</leafValues></_>
    <_>
      <internalNodes>
        0 -1 48981 -3.0909555789548904e-05</internalNodes>
      <leafValues>
        3.8139346241950989e-01 -8.3108067512512207e-01</leafValues></_>
    <_>
      <internalNodes>
        0 -1 69885 1.0863671079277992e-02</internalNodes>
      <leafValues>
        -6.5798020362854004e-01 5.0889062881469727e-01</leafValues></_>
    <_>
      <internalNodes>
        0 -1 9855 -2.2891772910952568e-02</internalNodes>
      <leafValues>
        -8.7217193841934204e-01 3.7518519163131714e-01</leafValues></_>
    <_>
      <internalNodes>
        0 -1 26799 8.8650751858949661e-03</internalNodes>
      <leafValues>
        -5.0887900590896606e-01 6.3723623752593994e-01</leafValues></_>
    <_>
      <internalNodes>
        0 -1 56649 -1.0682890191674232e-02</internalNodes>
      <leafValues>
        9.1877430677413940e-01 -3.6093825101852417e-01</leafValues></_></weakClassifiers></stage5>
</opencv_storage>
