<?xml version="1.0"?>
<opencv_storage>
<stage10>
  <maxWeakCount>7</maxWeakCount>
  <stageThreshold>-3.1252616643905640e-01</stageThreshold>
  <weakClassifiers>
    <_>
      <internalNodes>
        0 -1 35665 2.0525337755680084e-01</internalNodes>
      <leafValues>
        -4.6218487620353699e-01 7.1428573131561279e-01</leafValues></_>
    <_>
      <internalNodes>
        0 -1 66836 -4.7762496396899223e-03</internalNodes>
      <leafValues>
        4.6714362502098083e-01 -6.6807347536087036e-01</leafValues></_>
    <_>
      <internalNodes>
        0 -1 8563 3.5880389623343945e-04</internalNodes>
      <leafValues>
        -4.8117274045944214e-01 5.4779928922653198e-01</leafValues></_>
    <_>
      <internalNodes>
        0 -1 26514 1.3796538114547729e-02</internalNodes>
      <leafValues>
        -4.5519605278968811e-01 6.1188393831253052e-01</leafValues></_>
    <_>
      <internalNodes>
        0 -1 8300 2.4191500619053841e-02</internalNodes>
      <leafValues>
        3.5849651694297791e-01 -9.0440934896469116e-01</leafValues></_>
    <_>
      <internalNodes>
        0 -1 2116 -5.0061242654919624e-04</internalNodes>
      <leafValues>
        7.8121513128280640e-01 -4.4982874393463135e-01</leafValues></_>
    <_>
      <internalNodes>
        0 -1 62056 -1.7435917397961020e-03</internalNodes>
      <leafValues>
        8.4174817800521851e-01 -3.5686388611793518e-01</leafValues></_></weakClassifiers></stage10>
</opencv_storage>
