<?xml version="1.0"?>
<opencv_storage>
<stage12>
  <maxWeakCount>6</maxWeakCount>
  <stageThreshold>-3.8484016060829163e-01</stageThreshold>
  <weakClassifiers>
    <_>
      <internalNodes>
        0 -1 6841 -7.1154525503516197e-03</internalNodes>
      <leafValues>
        4.4927537441253662e-01 -7.2222220897674561e-01</leafValues></_>
    <_>
      <internalNodes>
        0 -1 43604 -3.2344816718250513e-03</internalNodes>
      <leafValues>
        6.4269042015075684e-01 -5.1096838712692261e-01</leafValues></_>
    <_>
      <internalNodes>
        0 -1 18786 2.3004873655736446e-03</internalNodes>
      <leafValues>
        -2.7263477444648743e-01 9.8222583532333374e-01</leafValues></_>
    <_>
      <internalNodes>
        0 -1 71239 -1.0622158879414201e-03</internalNodes>
      <leafValues>
        -8.1413710117340088e-01 4.0937671065330505e-01</leafValues></_>
    <_>
      <internalNodes>
        0 -1 18576 5.8759257197380066e-02</internalNodes>
      <leafValues>
        -9.3177789449691772e-01 3.1736966967582703e-01</leafValues></_>
    <_>
      <internalNodes>
        0 -1 12262 2.6204348541796207e-03</internalNodes>
      <leafValues>
        -7.1231222152709961e-01 4.6409383416175842e-01</leafValues></_></weakClassifiers></stage12>
</opencv_storage>
